{
  "W1": [
    [
      -0.3598476026758155,
      1.6936102473133725,
      -0.24204617168565928,
      -0.9777553459222106,
      1.9178225774079423,
      -0.03727084273104378,
      -0.4053551698164949,
      0.12431157120611525,
      3.3233132037965873,
      -0.29784203289526895,
      -0.002412131322203765,
      -1.2775370309143679,
      2.101140591771894,
      -0.28968199860393434,
      1.7080409353608943,
      -0.7961285594562584,
      -1.2235610109985988,
      -0.24109648539504877,
      1.071000555255756,
      -1.8522002677106864,
      -0.390999094854068,
      0.07465386905570262,
      -0.1744938299319509,
      -0.20870791716183237,
      -0.14812451182919487,
      0.8478690218450641,
      2.449331629835703,
      -0.5667700465572674,
      0.7552315810798863,
      -0.030009316202021293,
      -4.5539424653052425,
      -0.05008600504642809
    ],
    [
      0.3800084836104015,
      -0.5729993032994812,
      0.3291945007489677,
      -1.1738811253904418,
      1.1209907635043714,
      -0.5786841245401173,
      0.24341827214288103,
      -0.16593206967182755,
      0.3876858570835837,
      -0.20546165360299523,
      0.012603477617661403,
      -0.8572392235069849,
      -0.15311063876221423,
      0.7194556246615449,
      0.6559954840041747,
      0.6362540406363778,
      -1.4698029437707758,
      -0.7059392532267756,
      0.688441209104416,
      -2.274790561920771,
      -0.3185711612054626,
      0.3573752183852721,
      -1.165119106946832,
      0.5120939365057444,
      0.2534165384914603,
      -0.03171002406642914,
      -0.38066602277446115,
      -0.9244236099260786,
      0.26541438344241625,
      -0.010617091298269946,
      -1.3383313879600836,
      -0.22035022185028905
    ],
    [
      0.294124181739789,
      -0.2499570594190688,
      -0.35097161275721417,
      -0.2848422742267964,
      -0.2289096732265722,
      -0.03866859102813104,
      0.24669690985240103,
      -0.09796384193564671,
      -0.20260241129456705,
      -0.4030669420497426,
      0.9042855217426795,
      0.020541550272705038,
      -0.28460140913063553,
      -0.2679592366894083,
      0.45216088457002085,
      -0.05986296158175017,
      -0.4453246633273741,
      0.23680046395948684,
      -0.25808126870862813,
      0.3477920427208572,
      -0.42792210447899764,
      -0.21110045610250927,
      0.34570051184394207,
      -0.031525475975476364,
      -0.058533419224704224,
      0.39916877148685515,
      0.12875139342804198,
      1.1463418366901195,
      -1.167893749806623,
      -0.1863484745965199,
      0.11717651983913072,
      0.0025825854323537397
    ],
    [
      -0.22409940878959697,
      0.008317876552001478,
      0.3708420355393739,
      -1.1342899609162165,
      0.02849308122036447,
      0.23985322937479897,
      -0.9459724395828614,
      -0.18525594969741496,
      0.004887837826808897,
      -0.137293453713082,
      0.04694312513577163,
      0.00923604586399851,
      0.0071996767765768145,
      -0.7116507379526111,
      -0.011803822635206853,
      -1.4371586241678305e-05,
      -0.8447038385584583,
      0.49124352248326486,
      -0.0155271363711987,
      0.034805912623120855,
      0.10596660093008378,
      0.04037896923735024,
      0.6000966976786849,
      0.13120352381026582,
      0.07326393829717266,
      0.4097782602157117,
      -0.00530151370880723,
      -0.6547438292718942,
      0.05953470832553307,
      0.45852467042931,
      -0.19315543031852347,
      0.2691813511952585
    ],
    [
      -0.2575984720047752,
      0.683075513453334,
      0.19449950409361524,
      -0.18258341758663682,
      0.09994086066044981,
      -0.16517305251189887,
      0.10151682731125361,
      -0.6874272129532091,
      0.6293973011016761,
      -0.7915568676001792,
      0.5143300653160859,
      0.17333780188598022,
      0.9086080548328046,
      -0.29318420254679983,
      0.22581364302293222,
      0.38463556060147897,
      -0.7173063885460144,
      0.28740722039586414,
      -0.18650519117131353,
      0.3174748693867702,
      -0.46164669989837004,
      -0.7884566144641698,
      0.4323066829922047,
      -0.5567188480698038,
      0.03913900178701546,
      -0.32220243443707197,
      0.33541808494704817,
      0.08615278536909368,
      0.5434215925310735,
      -0.3431189938014504,
      0.2517489836459783,
      0.20682323379316037
    ],
    [
      -0.15863184487706114,
      -0.4782977902723979,
      -0.060654709560656335,
      -0.6764730710908317,
      -0.3907447631413985,
      -0.11132713330428433,
      -0.5827427373715756,
      0.5139512137758431,
      0.25310251023324865,
      0.5750085777697168,
      0.536039111010503,
      -0.03367606884180384,
      -1.0330953680788972,
      -0.042204263786773485,
      1.1819539360736502,
      -0.40018296196921055,
      -1.1199358965789212,
      -0.05624824280469849,
      -0.5327002157542718,
      -1.1125975703152455,
      -0.05227286801756856,
      0.3239119249845308,
      -0.2234505146182206,
      0.6084468358198818,
      -0.4666548246373445,
      -0.41839781263048326,
      0.2456819276940007,
      -0.1241930471602875,
      -0.41984266509571727,
      -0.09725313518844231,
      0.12094595027433663,
      0.027928851094736674
    ],
    [
      0.09565128195610767,
      0.03360182644963973,
      -0.9878058362427774,
      0.9658757658985715,
      0.31082179673560695,
      1.246227398894064,
      -0.17074987922598836,
      -0.13334584735067584,
      -0.28965524601856574,
      0.13322081794060106,
      -0.9425791717571838,
      -0.17963014887802073,
      -0.7006198452129941,
      0.03959640963400126,
      -0.4315455163093086,
      -0.059694422704443875,
      1.523457355190934,
      -0.3473495159033751,
      -0.4329171309230084,
      2.5627902521847856,
      -0.17235129613228273,
      -0.19869545753865694,
      0.1682783896807959,
      -0.2858227847081056,
      0.013036118861169363,
      -0.6284957506919616,
      0.3267924510065176,
      0.4206336916099394,
      -0.11438303287912455,
      0.2988510945934035,
      0.8918690080472546,
      0.08311327567008167
    ],
    [
      0.984237289529588,
      -0.007577995161120818,
      -0.4203985304016663,
      0.8800558636374984,
      -0.20659865469348598,
      0.7875821772594833,
      0.04106176937959374,
      0.24999660606320384,
      0.3144513456577995,
      0.14288540047448145,
      0.44063996241554176,
      0.1369919136551555,
      0.5142089989969212,
      0.3439203276830229,
      0.2775067460974545,
      0.11872613235430504,
      0.49014829976359126,
      0.13900507177015328,
      0.037711296229921365,
      2.333588182054238,
      0.5710317347178686,
      0.45799305901356335,
      -0.28447298002514015,
      0.21226519866805185,
      0.2500161615697843,
      0.763995371059369,
      -0.2662249289545551,
      0.5619206930324041,
      0.08053463446447683,
      0.033416214365621665,
      -0.4835411900147206,
      -0.19185255378497895
    ],
    [
      0.0366038538358342,
      -0.052177141834764025,
      -0.26169071355789786,
      -0.5099934976144468,
      -0.0031675890591054225,
      -0.8270045638153775,
      0.11852309140934837,
      -0.20713286272073353,
      -0.015698436753633308,
      0.29579549073874734,
      0.052042347028629386,
      -0.1376304379771727,
      0.032515125350388634,
      -0.30518737950347763,
      0.006833873290712202,
      0.5640072759069206,
      -0.8006794636660005,
      0.12959380242689134,
      1.0390880091211225,
      -1.6591495345930245,
      -0.05380465487991681,
      -0.5564575267032745,
      -0.03549209614350873,
      0.130477964994326,
      0.8442271694149447,
      0.17996069004548082,
      -0.01324458252421968,
      -0.014126864114084682,
      0.24107956799134309,
      0.26109611683477757,
      -0.24320020052099764,
      -0.3544436984185324
    ],
    [
      -0.4555239570376219,
      0.22868517360551904,
      -0.2015997838969882,
      -0.37163104565870086,
      -5.251630604255352e-05,
      -0.3703499335143813,
      -0.8066246804786398,
      -0.05783346509739609,
      -0.020359692894277092,
      0.14133746236986083,
      0.06236775004688016,
      -0.4150928077357448,
      -0.48201052836958247,
      0.461984545175647,
      -0.022933282366719127,
      0.17694909239242534,
      -0.49266694069304184,
      0.35234914273415896,
      -0.3066521447634416,
      -0.5381670142686216,
      -0.03902745643806255,
      -0.6055298983215555,
      -0.46638508062124406,
      -0.36040659536331776,
      -1.005787539902828,
      -0.5601681456810289,
      -0.5099709267227772,
      -0.29203320772716923,
      -0.3500525383095184,
      -0.32100489449302716,
      -0.17619433205263293,
      0.03729729775137502
    ],
    [
      -0.03004083731858545,
      -0.3564678469491781,
      -0.0012801595484006625,
      -0.6555453716164604,
      -0.02686114461136645,
      -0.48008894520512957,
      -0.13096939994145307,
      -0.11029210994117358,
      0.0005371790503154115,
      -0.34299865099587956,
      0.3523258218663975,
      0.4482000922329431,
      -0.19339204075971522,
      -0.10207789304287385,
      -0.5404775413399894,
      -0.5868814467245458,
      -0.24689403851702219,
      -0.3705380586709124,
      -0.048415266936219864,
      -0.2118145145852619,
      -0.7633567866723641,
      0.5110367124225182,
      -0.13355023857952864,
      0.25006963441352936,
      -0.27709033376728065,
      0.09099070157156937,
      -0.07403129606573873,
      -0.6524646045780262,
      -0.24934796575254312,
      -0.2767879551716192,
      0.09854400951091286,
      0.39074243156533706
    ],
    [
      -0.33629634004372155,
      0.0034959961081653156,
      0.6301893671218673,
      0.49733514769661313,
      -0.0005425038892883103,
      0.2811643185120234,
      0.23603620233873884,
      0.3683902567532085,
      0.000735820800710948,
      0.08091682767967964,
      -0.01174064215862785,
      0.038712992925406364,
      -0.0032910689809058746,
      -0.0405457813305637,
      0.0004859444439459411,
      0.00018500871712453826,
      0.09509372924818008,
      0.4862018041514688,
      -0.0005196513126365052,
      0.4729443355763002,
      0.44876899277649096,
      -0.6994762815956677,
      0.04828316356422305,
      -0.5409292207849975,
      0.12921253944176678,
      -0.4196829107014169,
      -0.0010018665528383518,
      0.28559929499165737,
      -0.03951737503149043,
      0.7599155753558093,
      -0.08367329348708692,
      -0.1756104069308308
    ],
    [
      -0.31009461209129824,
      -0.4935089725522356,
      -0.501158125763446,
      -0.12536587527481813,
      -0.12305582806512073,
      -0.8904707312446759,
      0.21152821836752075,
      -0.504314002864361,
      -0.5200815393016902,
      -0.1452609046269311,
      -0.950306206975683,
      0.13755189295850162,
      0.07072483253379,
      -0.4225322701925769,
      -0.4215247488750211,
      -0.16358203817065842,
      -0.1182068074528988,
      -0.37118541483804623,
      -0.48014757315993906,
      0.20762611986829577,
      0.07836340110089957,
      -0.05218185963484614,
      0.1321539270765446,
      -0.19599244166022928,
      0.2734323667990903,
      -0.4246627519930188,
      -0.3927462587354472,
      0.18958294699664818,
      -0.3046767274057491,
      -0.3208575797943637,
      -0.38587317437331803,
      -0.4707707266429243
    ]
  ],
  "b1": [
    [
      -0.006792829094870271,
      -0.03069111459355033,
      -0.032241462256150176,
      -0.5229527840820414,
      -0.3553691709376431,
      -0.2240036465497734,
      0.0,
      0.0,
      -0.16910618087722648,
      -0.02602225531071706,
      -0.14302961096955044,
      -0.06653986714687027,
      -0.0505703571521908,
      0.0,
      -0.5278854719059518,
      -0.05121153413755393,
      -0.5525019422078343,
      -0.22061252823961605,
      -0.16822453587494007,
      -0.35805310880822544,
      -0.13521240445625327,
      -0.0755755961692779,
      0.0,
      -0.18683624944740523,
      -0.1961375941082088,
      -0.00944024582259314,
      -0.331513631550025,
      -0.2807796002117269,
      -0.4004807860194229,
      -0.12072380416259794,
      -0.26933783579350634,
      -0.07920522155675283
    ]
  ],
  "W2": [
    [
      -0.3218436014710107,
      -0.12776380078194016,
      0.11023389365465375,
      -0.07627222284127065,
      -0.285376814351685,
      -0.22446166688164704,
      0.06447736873150299,
      0.15367249263985158,
      -0.05498119744990208,
      -0.06505617736160149,
      0.2851094313266635,
      0.9512274035047369,
      0.03618250803594609,
      -0.22773068573468475,
      -0.12661629894690746,
      -0.14636728145567615
    ],
    [
      -0.38955375885162513,
      0.1871708424919176,
      -0.784261224855716,
      -0.4287778931648865,
      -0.04753535532039034,
      -0.6467093814505961,
      -0.015445075288779706,
      0.3103995643389327,
      -0.40776177743733144,
      0.07759364372127588,
      -0.859386792762892,
      0.15258325794149266,
      -0.2309071360990691,
      -0.6846356970597932,
      0.30059324411360233,
      0.06277155259955315
    ],
    [
      0.390653037332597,
      0.10467983173746367,
      -0.17687642226439787,
      0.06626378381889829,
      -0.03652172929937147,
      -0.2774107073389538,
      0.31567113802139396,
      0.02769364815504703,
      -0.03502302899926354,
      0.03429690508779583,
      0.16050284240085277,
      -0.016974084470141967,
      -0.008040587289793361,
      -0.1666026336064704,
      -0.7338710514212857,
      0.26327335901174215
    ],
    [
      0.21463068486131742,
      0.08032870210256073,
      0.11632955218176687,
      0.051147356275642736,
      -0.1958570744899149,
      0.25841334826496687,
      -0.3463199981487421,
      0.20672175765184297,
      -0.20885274118195873,
      0.18137475053975236,
      -0.19497517747413506,
      -0.21394984618871138,
      1.1566110818586421,
      -0.1113808738804874,
      -0.25449093623975944,
      -0.2798670460876811
    ],
    [
      -0.2949252473913561,
      -0.5331795344715322,
      -1.0011527836752798,
      -0.3834699595461209,
      0.2267048172908428,
      -0.5031182643468729,
      -0.15828483261335963,
      -0.17487419673322574,
      -0.08748379602472865,
      0.05929426503479714,
      -1.1383239868843467,
      -0.1494470896980997,
      -0.598794484498298,
      -0.5956730480586035,
      -0.16440741569436532,
      -0.2054301831989661
    ],
    [
      0.5186519875515859,
      0.002714541041512279,
      0.01680080193815184,
      0.41820637915826236,
      -0.3269774454344263,
      0.3371818749505951,
      0.06117478841500236,
      0.27345167776789003,
      0.4013104024108266,
      -0.002070756486557867,
      0.030740438680595828,
      0.022646317668682928,
      0.5838908154480548,
      1.171315649027378,
      0.18323702541608067,
      -0.1291238767741988
    ],
    [
      0.17676875689161387,
      -0.24265778136538765,
      0.08664887053656327,
      -0.07553272607516856,
      -0.13413775943036996,
      0.18635943374486394,
      0.45808607668569656,
      0.31939174938428294,
      0.026262677653763052,
      0.020711050701720694,
      -0.08481570575046599,
      -0.10340480079604529,
      -0.2643427632420909,
      -0.5433150889428302,
      -0.24296913878503953,
      0.04258236000359059
    ],
    [
      -0.031488522114347516,
      -0.13993250566992285,
      0.20504432094155714,
      0.18351648939224435,
      0.11380289974433526,
      0.08526038319601875,
      -0.28732044576231697,
      -0.08578419207622397,
      0.5731232139821794,
      -0.23976851450455597,
      0.25553369375469626,
      0.33350655605362367,
      -0.40649848410605843,
      -0.28876351475952805,
      -0.17673155854105804,
      -0.24219893504705528
    ],
    [
      -0.8291660484300184,
      -0.5344914939937457,
      -1.7849494498973855,
      -0.10386225838887522,
      0.015738440787300884,
      -1.2830661526663711,
      -0.12882799224334704,
      0.06331234191125323,
      -0.07303102704402008,
      0.27879973007719494,
      -2.836024159887788,
      -0.015330121799835311,
      -0.9932651236373256,
      -0.8164041193782118,
      -0.05848135344451494,
      -0.6125909141974919
    ],
    [
      -0.3524206124330751,
      -0.2482263639148266,
      -0.32428180376819943,
      0.23280823417690763,
      0.16865297267464238,
      -0.03454346461078721,
      0.21519258515427878,
      -0.01297564350717419,
      0.09696646723240084,
      -0.2998053303625447,
      -0.15726847016760545,
      0.09134818857940556,
      0.3770574194457817,
      0.38390564108043723,
      -0.1437619828488087,
      -0.19653370623574482
    ],
    [
      0.10926926161170414,
      -0.49982225477155345,
      -1.8718179212362536,
      -0.05676919065110423,
      -0.08273411187899328,
      -0.1264098464104028,
      -0.7071675113424604,
      -0.4773102687953986,
      -0.12295705838698903,
      0.04505541757426595,
      -0.030127310622420727,
      -0.5288105689671504,
      -0.7498516061229867,
      -0.06912605277608093,
      -0.5751161664385223,
      0.18545116198171985
    ],
    [
      -0.018810453982402484,
      -0.29232203969539067,
      -0.1756181885551535,
      0.09079888631500654,
      -0.44966039280214287,
      0.28278844699635586,
      -0.6282005805134055,
      0.06615683918471695,
      -0.5635713024505519,
      0.0200010311291595,
      -0.20948566716568445,
      -0.2618267016737693,
      0.1317307491717908,
      -0.41146864870955463,
      0.06146267567655193,
      -0.12605136941124773
    ],
    [
      -0.5119420315450983,
      0.4960346450149931,
      -1.0683282673439372,
      0.16946197024493578,
      -0.14098626509612558,
      -0.491815679472189,
      0.3041367440480825,
      0.3581146259809812,
      0.12613166497959044,
      0.14643477304168395,
      -1.1604852564843242,
      0.5153588179695697,
      -0.24047014154427165,
      -0.3893405601900462,
      0.016437188236560537,
      -0.2206813175439649
    ],
    [
      -0.7265325267752228,
      -0.13254047488920898,
      -0.1953010506982037,
      -0.15954604536681247,
      -0.35848970889836285,
      0.05166505250749369,
      -0.5132023075914746,
      -0.46452059105067306,
      -0.25590644700058857,
      -0.06271133262460107,
      0.018004405933969743,
      0.18019415166591135,
      -0.525693923218352,
      0.11935458668491737,
      0.04998476122663035,
      -0.3247646673030444
    ],
    [
      0.04258057092815264,
      0.4625052659508433,
      -2.0457430768053495,
      -0.108273696903637,
      -0.1131087220201318,
      -0.1332349482017079,
      -0.01907163333072355,
      -0.24756911077905483,
      0.14349161992420234,
      0.333602426507943,
      -0.21400012548089234,
      0.22689175077430113,
      -0.4090661280759499,
      0.11646427852569267,
      0.09061260592304382,
      -0.06308073948009482
    ],
    [
      -0.2793843933715314,
      0.35037720148426404,
      -0.42972344306577986,
      0.21368900492342763,
      0.03006065923390545,
      -0.10584334359918904,
      -0.27755154581920455,
      -0.1450380220662836,
      -0.17855479912142844,
      0.09564144558783688,
      0.14028176237967607,
      0.06584193779615334,
      -0.2976989047114991,
      -0.09853953941226279,
      0.24151572019064846,
      0.3700379447511403
    ],
    [
      0.33807475834514056,
      0.22606875082941863,
      -0.24288593330916075,
      -0.43830791851097173,
      -0.003260884061213961,
      0.9663364643804259,
      0.03065108312785531,
      0.1974676116142642,
      -0.2933563066317005,
      -0.0953684094919151,
      -0.17247586139469875,
      0.33067883186401625,
      1.3039607432346514,
      0.13494221387215952,
      -0.3366152083783525,
      0.15046368630146043
    ],
    [
      -0.2344399045766284,
      -0.25905236002247384,
      -0.1650101155990387,
      0.24874052003410782,
      -0.09295367007554327,
      0.3417210822548297,
      0.4095254885965518,
      0.009063154057192678,
      -0.2753478667429933,
      0.08321577241694483,
      -0.3401501566704822,
      0.07867064204145312,
      -0.31752945856376213,
      0.4847606681810151,
      -0.36445855951370054,
      -0.030062328706617802
    ],
    [
      -0.17458711645513955,
      -0.0129637301182036,
      -0.5374459173831018,
      0.12584556757413587,
      -0.31697728164273925,
      -0.0007306429178509377,
      0.06620226621111214,
      -0.7743071592897963,
      0.41522649098625974,
      0.23862948934037426,
      0.07025933225946995,
      -0.38785593644076244,
      -0.43509897219040317,
      0.12766232033760105,
      -0.3077900513662845,
      0.008474787883234873
    ],
    [
      -0.404706371020396,
      0.26195096163173326,
      1.3969248345207363,
      -0.04022192606311104,
      -0.36414804539679724,
      -0.2580913534016472,
      -0.2015158276891,
      -0.1853406191512486,
      -0.051442456792812244,
      -1.028465987613648,
      0.6743648354030428,
      -0.5083250447593051,
      -0.07387631190113104,
      -0.11928704224375748,
      -0.2521866303974764,
      -0.17766089723183198
    ],
    [
      -0.39717232708955935,
      0.07610056378418677,
      0.002530694911267627,
      -0.25940105113951734,
      -0.2557350984848138,
      -0.17882410005007388,
      0.6458111507940991,
      -0.030970963051188585,
      0.35591193088180784,
      0.004381390215793984,
      0.0879911209567843,
      -0.4018021088135842,
      -0.12631959981254484,
      0.12618590389693593,
      -0.2822801324857668,
      -0.12699207403860882
    ],
    [
      0.005971303348463169,
      0.3532393033693013,
      0.42931959738704306,
      0.22885405655963378,
      0.3701007096883078,
      -0.014861310683731956,
      -0.4699413238586156,
      0.29527367533319,
      -0.7117698258983154,
      0.46853422680351164,
      -0.4181790227061529,
      0.18210606862866058,
      0.39676931518658165,
      -0.24685586019645758,
      0.09819631848083098,
      0.06829445377505826
    ],
    [
      -0.22991910089067188,
      -0.28808487806237415,
      0.23065677334981552,
      -0.1408192362640509,
      -0.22471063859734142,
      0.3477199686655208,
      0.19899645437720273,
      -0.2953059498293138,
      0.20059748564664148,
      0.18361974539062573,
      -0.018952516091940458,
      -0.20548519110629648,
      0.018995081709931444,
      0.013043609464543634,
      0.14054575395572813,
      -0.14541718689498503
    ],
    [
      0.18225498860708852,
      -0.40865371904976705,
      -0.1707529079859309,
      -0.059819644753600444,
      0.294570791913939,
      -0.14967489971242526,
      -0.2128245267795611,
      0.3739263803626039,
      0.1304401953499862,
      0.05612717283143476,
      0.03402090218061606,
      -0.22221150755884142,
      0.16018422800594323,
      0.06364971168522668,
      -0.3842660890036099,
      0.013349665325628327
    ],
    [
      0.10885417042746226,
      0.059608611462201984,
      0.4522746682591414,
      -0.2588127145475403,
      -0.3893489376469364,
      0.0674894507722118,
      -0.2753514921629029,
      -0.03611373202175432,
      -0.23845920475070667,
      -0.5037873306554647,
      -0.4155504369599406,
      0.4832805911480043,
      -0.2939656656527009,
      -0.05633463874856745,
      -0.042890968077372096,
      0.08959644445981829
    ],
    [
      -0.001703848406892236,
      -0.22528175710817844,
      0.3641183758470688,
      0.255212087337621,
      0.19554001692514666,
      -0.05950348317737876,
      -0.7364080950862216,
      0.1032777285526913,
      -0.3292089611523245,
      0.17450868972102723,
      -0.39128628364725426,
      0.5361851831545553,
      -0.2640014434320945,
      -0.035069707686808546,
      -0.12604635874057213,
      0.22424728800815072
    ],
    [
      -0.30327794650050716,
      0.492779395164077,
      -0.267380937381611,
      -0.38932721460744685,
      -0.12299862960433229,
      0.08373185850936563,
      0.38753926713758163,
      1.1275419710934311,
      0.3774674019729941,
      0.09189852089614088,
      -0.20632123140386235,
      1.4156259288680813,
      -0.4530473596588013,
      -0.03130756400639545,
      0.524798201457121,
      0.10592471849406597
    ],
    [
      0.09228362222864703,
      -0.4259535840606654,
      -0.12450423517033368,
      -0.3427984379257986,
      0.04181392606030451,
      0.30422068496188137,
      -0.46621605080189404,
      -0.21145062413083168,
      0.09661449123777091,
      0.014100938086771899,
      0.09290305632664547,
      -0.18003628960016171,
      0.4137240294889522,
      0.5499786941392124,
      -0.33588434216489294,
      -0.03537772574324403
    ],
    [
      -0.2007343069794773,
      -0.3593232440186308,
      -0.09019742003010484,
      -0.029154729057994305,
      -0.11797649059642608,
      0.36299399509262914,
      0.2178793329823612,
      -0.035386012701452585,
      0.05749454408376752,
      0.22352645494334963,
      0.1488628247655325,
      0.5110914718149522,
      -0.5554846075197145,
      -0.07188793908629576,
      0.2498386638674049,
      0.18567540711678449
    ],
    [
      -0.05700762486271724,
      0.34272573275656026,
      -0.05987664261252287,
      0.04984082388858435,
      0.2875837687253259,
      0.09076979249219178,
      0.0813723158473968,
      0.14229852025792117,
      -0.27132099125313414,
      -0.44544967449009265,
      0.03540386450760891,
      -0.03385862287951455,
      0.5080091518875597,
      -0.12414332193208545,
      0.25632137051654036,
      0.2423882744749625
    ],
    [
      -0.19549644227922214,
      -0.9537530325714422,
      2.8022829501833213,
      -0.05031182653689681,
      -0.8172043395392465,
      -0.20840600320500322,
      -0.3210926485893436,
      -0.013788548522550272,
      -0.03520176261494096,
      0.11381695686048983,
      0.15571910804419486,
      -0.4504255492371236,
      -0.21633372905139298,
      0.0693566375719446,
      -0.5649700466728724,
      -0.1082600001930569
    ],
    [
      0.34674282503745285,
      -0.42186986583082714,
      0.07434565622124527,
      -0.053469486289724734,
      0.011064022611002453,
      0.15248624336891,
      0.2986148930556374,
      -0.034717089613672966,
      -0.09908931436077181,
      -0.15463834234576146,
      -0.348910688789492,
      -0.023887097854422622,
      -0.2795049705911151,
      0.3340972777393422,
      0.31018230862266166,
      -0.04435451431443137
    ]
  ],
  "b2": [
    [
      -0.29490135072875306,
      -0.9023898794883237,
      -0.9350933608129243,
      -0.1473342104148965,
      -0.41283962855584727,
      -0.27889544471329925,
      -0.42052796150011956,
      -0.7203803231583676,
      -0.28988308479708247,
      2.285098634082408,
      -0.024717030516332637,
      -1.4572249654601315,
      -0.16720760890248618,
      -0.4491239816020596,
      -0.5823425023400413,
      -0.316971561547314
    ]
  ],
  "W3": [
    [
      -0.8040479451180712
    ],
    [
      0.8449963663400905
    ],
    [
      -1.2820723887271797
    ],
    [
      0.19873154848086494
    ],
    [
      0.528608399621136
    ],
    [
      -1.4400111565671017
    ],
    [
      0.3625624747549421
    ],
    [
      -0.38604418786655276
    ],
    [
      -0.18204459724529376
    ],
    [
      1.0983474866294034
    ],
    [
      -3.2394690121452085
    ],
    [
      0.5035871439427804
    ],
    [
      -1.4683982844634706
    ],
    [
      -1.1964809986243088
    ],
    [
      0.4140428257187084
    ],
    [
      0.21861128770778576
    ]
  ],
  "b3": [
    [
      -2.4107587327375484
    ]
  ]
}